12 128
2 -0.00095909735 0.001669746 0.001609019 -0.0038664476 -0.001537374 0.0022231005 -0.0025592442 0.0003319203 -0.0037767524 0.0019787215 -0.0029584172 -0.0029156746 -0.003772144 0.0030186628 0.0023540065 0.0038363503 -0.0021432394 0.0031914173 -0.00049051235 0.002108698 -0.0020663624 -0.0022446453 -0.0008484882 0.0023943628 0.0017289631 0.0011799859 -0.0012131818 0.0024841074 0.0002402231 -0.001277988 -0.0013815489 0.003513611 0.0022667947 -0.0035220752 0.0026617267 0.0016389771 -0.003365042 -0.0037537836 -4.352025e-05 0.0034299649 -0.0035002187 -0.0028436526 0.0021743274 0.0013633777 -0.0010231835 0.0022802881 -0.002912169 0.0035703022 -0.0026738099 0.00059901306 0.00040962765 0.00043808436 0.002085735 8.425724e-05 0.000310392 0.0024812783 -0.00032587102 -0.00037291812 0.0026841727 0.002258409 -0.003518867 -0.00046196888 -0.0011733789 -0.003749466 0.0024716908 0.0014545869 0.0009334587 0.00091289333 0.0036793316 -0.00041057225 -0.0037194374 0.0004020508 -0.0026252011 -0.0024208247 -0.0012008152 0.0013099097 0.0010048317 0.0015756733 -0.0015734418 0.00086669833 -0.0037760227 -0.0012569268 -0.0019062286 0.0003943269 -0.001236339 0.0033912647 0.002798282 0.0022196264 0.0004356262 0.001061375 0.0026721407 0.0010150628 0.00389021 0.0036463328 -0.003707169 0.0006451978 2.436363e-05 0.00076283765 -0.0037959996 0.00017982633 0.00010520636 -0.0030982986 -0.0028593559 0.00224252 0.0036026833 -0.0017459616 0.0017719443 0.0006504839 -7.8539226e-05 -0.0011259275 -0.0034948697 0.0018221909 -0.0028844904 0.0011159558 0.0028014733 -0.0025024656 -0.0011061744 0.0019205617 -0.002428737 -0.001290277 -0.0012742941 -0.0015109008 -0.000587187 -0.0011604927 0.0017651219 -0.0027783324 0.0033407179 -0.0019642801
6 -0.0023160253 0.0015920412 -0.0030721477 -0.0014973293 -0.0016102829 -0.00058655685 0.0015884263 0.002014251 -0.0013566463 0.0032657713 -0.002389947 -0.001363911 -3.1835518e-06 -0.0020850534 -0.0029523862 -0.0010181314 0.0011077024 0.0022005115 -0.0006767819 -0.0026113295 0.00057582837 -0.0027553178 -0.0016771016 0.00022223021 -0.0015669732 -0.003740474 0.0037614696 -0.0015763268 -0.0023679666 -0.0031667931 0.0029622002 0.0030345048 -0.0025162508 0.0029212446 -0.0031312522 -0.003422429 -0.00262555 -0.0013804394 0.0027415 -0.0009906703 0.0036934526 0.00078849465 -0.0016809574 0.0001859215 0.0010602352 -0.0038158486 0.0020628835 -0.0031440333 -0.00013200981 0.00085724687 -0.0023871167 -0.0037322196 0.0030215608 0.0030270293 -0.0010404567 0.001685549 0.0013693635 -0.0019259406 -0.0012834116 0.0022907248 0.0033175924 0.0018473347 0.0014966283 0.0035942055 0.0032431085 -0.0021414836 0.0023142193 -0.0013712702 0.0035733322 -0.0020488533 0.003395206 -0.002350272 0.0020796906 -6.6410124e-05 6.4808446e-05 0.0015751865 0.0013596152 -0.003556257 -0.0019840351 0.0018822779 0.0037129119 0.002817975 0.0030842503 -0.003551492 0.0005188134 0.001233305 0.000782859 -0.0033027518 -0.00271342 -0.0022991453 -0.0010893169 -0.0032961403 0.0016966381 0.003797961 -0.00052632 -0.00049238454 0.002081831 0.0026382841 -0.002286947 -0.0027513118 -0.0013726274 -0.0037522295 0.002640995 0.0037030303 -5.0612296e-05 0.0010740838 9.253646e-05 -0.0031610343 -0.0008293438 -0.0016531157 -0.0016500764 0.0018907724 0.0030745827 -0.0036274267 -0.003061575 0.00076389196 0.0022651223 0.0035222867 0.0025820835 -0.00026921218 0.0038124446 0.0001960623 -0.0033819266 7.7062585e-05 0.0019064893 -0.001927475 0.001205905 -0.0010523567
1 0.0012877232 -0.0014895797 0.00041085412 0.0018844865 -0.0020627396 0.0033938703 0.00030259017 0.0025932689 0.0014561592 -0.002835898 -0.0029367532 0.0022343455 -0.003506271 0.002142942 -0.0017719816 -0.0013439701 0.0014574407 0.000120749326 0.0023260212 0.00064532284 -0.0010176792 0.0020443313 -0.003858034 0.0010806714 -0.00029944317 -0.00230128 -0.0038040797 0.0028851666 -0.0030481205 -0.0035304104 -0.0012273027 -0.0027896978 -0.0018059339 -0.0038298268 0.0037741966 -0.0029425193 -0.0024397078 -0.0024663778 0.0015659047 -0.002690511 -0.003899061 0.00022868376 -0.0012105309 0.0030234451 -0.0006013277 -0.00066264416 -0.003196226 0.0034932075 -0.0021577892 -0.0024878224 -0.0028320528 0.0039036525 0.0005247614 0.0029192907 0.0017688081 -0.002536919 0.0014682228 -0.0034571546 0.0010992301 -0.002344295 -0.002154117 -0.0036130091 0.0015068674 -0.0020708737 -0.0037799904 -0.0013755492 -0.0006414655 0.0036771516 0.0013373127 0.001414498 -0.0024009491 4.7564963e-06 0.0018240006 -0.0036172706 -0.0031248739 -0.0037352464 0.002802075 -0.001994549 -0.0003792865 -0.003578972 -0.0019515158 0.0028066733 0.0002488484 0.0017191991 0.0009993532 -0.002761938 0.0029421744 0.0026104925 -0.0035722635 0.0013193067 0.0005651366 -0.00064792635 0.0013018503 -0.00035847776 0.0030783773 8.508128e-05 0.0037655209 -0.0021149789 -0.00048740135 0.002198444 -0.0037046452 -0.0012873688 0.0029981271 -0.0037476246 0.0020056157 0.0010350322 -0.0015533424 -0.0024983815 0.0029721458 -0.0028491742 0.002671003 0.002045203 -0.0032656565 -0.002073417 -0.0022146692 0.0025495798 -0.0022547531 0.002902172 0.0019287062 -0.0007521825 0.0004270413 0.0020639645 0.00113706 -3.1193795e-05 0.0014035949 0.0017421902 -0.0038339812 -0.0031795052
8 -0.0017802623 -0.00015748305 0.0013813862 -0.002726854 -0.0014177881 -0.0028899317 0.0019286869 -0.0017702932 0.0014890543 0.0032372484 -0.0027812987 -0.003220817 -0.0020044115 5.2920077e-05 0.0014717547 -0.00059145037 -0.0027271037 -0.0034372755 -0.0029396336 0.0011508078 -0.0037432075 0.0025214304 -0.0014068676 0.0011276879 0.002182551 0.0014526771 0.0035963317 -0.0012554193 -0.00034226093 -0.00065184943 -0.00032832156 -0.0016289583 -0.0036052587 0.0037721077 -0.0017442259 -0.00094748434 -0.00078099075 -0.002508414 0.0019983766 0.0036003955 -0.0013439363 -0.0008801809 -8.6095206e-05 0.0016890684 0.0009773505 -0.0009789862 -0.0036754855 0.0010310073 -0.0029854903 0.0026025847 0.0016119998 0.0009459209 0.0026944736 0.0035060789 0.0012490826 0.0038644222 -0.0014647497 -0.0014055631 0.003713559 -0.0013330611 0.0036680049 -0.000564416 -0.0008786952 -0.0011256638 -0.0018192012 -0.0011622285 0.0025851077 -0.0012929661 0.0009682783 0.0011101861 -0.0005158995 -0.0014930798 -0.0012196946 -0.0004381101 0.00073493127 -0.0032052507 0.0024963268 -0.0016106986 0.0037235313 -0.0022210516 -0.0019448366 0.0025594553 0.0009733326 0.0004131285 0.003823731 -0.0010255054 -0.0025165747 0.0032672524 0.0037636715 -0.0026855776 -0.0027670825 0.002563086 -0.000903376 0.0027647535 -0.0029176374 -0.0010319493 -0.0026992229 -0.00081286515 -0.00029112652 -0.00095304416 -0.0034998418 -0.002948681 -0.00097575283 -0.0030946962 0.0006423187 0.0031253311 -0.0023328452 -0.0031374677 -0.0035565142 -0.00039911288 -0.00044950377 0.0021570844 0.0014543202 -0.0014375771 -0.0005154808 0.0023895241 -0.0017145624 -0.00025944875 0.00054223806 0.002850716 0.0026615397 -0.0013904403 -0.00016986999 0.0015328646 -0.00070881477 0.0025442895 -0.0038315607 0.0014267539
11 0.0018096924 0.0022035069 -0.002981272 -0.0013383015 0.0006866225 -0.00197804 0.0010728702 0.0022680648 0.0036378147 -0.00034216561 0.003109478 -0.0024427671 0.00065976684 0.0015883201 -0.0015567481 -0.000427612 0.0017673803 0.0010302986 0.0018303719 0.0001860192 -0.0006426061 0.0019948368 0.0012405762 -0.0018736401 0.0024266716 0.0022850435 -0.0027793453 0.0021993602 0.0013526215 -0.0031179495 -0.003421242 -0.0023651982 5.9274666e-05 -0.002779035 0.00017878867 -0.0011459377 -0.00062133424 0.00019572288 0.0015587227 0.0038936683 -0.0005131453 0.0013673437 -0.002689081 -0.0032547978 0.0003471035 0.0008000268 0.0031554715 0.0027747732 0.000119495264 0.0023389128 0.00023463438 0.0016691486 -0.00070760224 -0.0002701769 0.00087053335 0.00056792377 -0.0010488183 -0.0010691921 0.0022655353 0.002467661 -0.003679285 0.0017752899 0.0014737594 0.00036085155 -0.0024586727 0.0014709309 0.001774098 0.0005015622 0.003013226 0.001653208 -0.0011006154 -0.00073172554 0.0006647898 0.0030216433 0.0024449278 0.0028673382 -0.0030500453 -0.0024301193 -0.00085305294 -0.00022996946 0.0032338635 -0.001284766 -0.0031604837 -0.0022407493 0.00035906144 -0.00057161 0.0004933493 -0.0019386997 0.0010664312 0.0038723785 -0.0027646106 -0.0018471614 0.0008872011 0.0012617741 -0.0004988127 5.736193e-05 -0.002377674 0.0020425553 0.00097332185 -0.0028350423 0.0032918549 -0.0031472093 0.002283789 -0.0032673588 0.0024635033 0.00043029938 0.00013975354 -0.0005364744 0.0014204767 0.0020739995 0.0007833752 0.0005610136 0.002941914 -0.001019874 0.0034486803 0.001195424 -0.0010113654 0.00082089414 0.0036742364 0.0036790217 0.0003280698 0.0026020913 -0.0030239052 0.0038307721 -0.0030541078 0.0018757025 0.0019607595 -0.00038149708
10 -0.0012968014 -0.00047191046 0.00036031683 0.0030591905 0.000480437 0.002018278 0.0025072999 -0.0019481612 -0.0029689816 0.00054046605 -0.0017825343 0.0007063801 -0.0037088078 -0.0009795922 0.0015038602 0.0029253203 -0.0026768807 -0.0021430652 0.0016205284 -0.0027068397 -0.0009038729 -0.0038985498 0.00043029292 0.0022396557 0.0038625472 -0.0019096731 0.0020108446 0.0014673297 -0.0027434647 0.00048192104 -0.0024280462 -0.003066462 0.0025003355 -0.002268772 0.00038024003 -0.00028245398 -0.0026871252 0.0036146895 0.0030869215 0.0035287943 0.0026909972 0.0038258478 0.00022050037 -0.0028089508 -0.003481378 -0.0024114999 -0.00062826887 -0.0029711004 -0.0024289095 -0.0022177927 0.0037687467 0.0006899151 0.0019326827 -0.003021623 -0.002334341 0.003318513 0.00044209597 0.0017830767 -0.0033073465 0.00043237617 -0.003824225 -0.0037501277 0.00031813138 0.0036956663 0.0020286718 -0.003848808 0.00025960396 0.0014714049 0.0030644608 -0.003502673 0.00040942052 -0.0013763449 -7.2741044e-05 0.0001709212 0.0017134091 0.00044684854 0.0010467583 -0.0003825835 -0.0024370516 0.002196927 0.0021380833 0.0019983773 -0.0007290863 -0.0018704139 0.0034544063 0.00063057855 0.0023324036 0.0030822386 0.0022507412 0.0037687372 -0.0029928787 -0.0012563465 0.0031022707 0.0033564686 0.0033411004 0.002629486 0.0032468175 -0.0033828202 -0.003163852 -0.0021478494 0.002482136 0.001777942 -0.0021427176 0.0022124336 0.0001159677 -0.0013344145 -0.0025611431 -0.0025241033 -0.0017485856 -2.1076652e-05 -0.0016018014 -0.002197823 -0.001264007 -0.0034247988 -0.00012317106 0.0034342739 -0.0029289993 -0.0020387003 -0.0011617211 -0.0018571197 -0.00027063178 0.0030070902 0.002475552 -0.0035755828 -0.0018584899 0.0004865145 -0.003410557 0.0020954113
3 0.0025248043 0.003376949 0.0028875775 -0.0003160228 0.0032542003 0.0037711447 0.0015011067 0.0010459987 -0.00023775676 0.002021343 0.0025645522 1.6476877e-05 -0.00038448328 0.0010711265 -0.0026510505 -0.00023782298 0.0031653875 -0.0038067764 -0.0019264936 -0.002767822 0.0035082554 0.0017716545 -0.0010979462 0.0037307749 0.0025875643 0.0028674158 0.000106174295 -0.0026694373 0.00027521135 -0.0028654938 0.0011406774 0.0004239947 0.00052940176 -0.0024506985 -0.002023968 0.00074815366 -0.0018774532 -0.00017785102 -0.0011824467 0.0032768871 0.002436363 0.0009429566 -0.0023776342 -0.00095228484 -0.0009413349 -0.0027935002 0.0010779953 0.00070327247 -0.0022418597 0.00091022527 -0.002401076 0.0036371704 0.0005896062 -0.0017475164 -0.0017080634 -0.0027001975 0.0030191669 0.0038372402 -0.0032533545 0.0012970296 -0.0033432473 -0.0011348557 -0.0038304848 0.0024244506 -0.0038847635 0.003706495 0.00028015705 -0.003028397 -0.0037188227 0.003284021 0.0010232389 0.0018476237 0.0031793222 0.0013303637 -0.003732147 0.0017687702 0.0011435887 -0.0026702245 0.0021767973 0.0030329747 -0.0030684224 0.003462186 0.00014384979 0.00035039056 0.0033480406 -0.0016753891 0.00013870571 -0.002154536 -0.0031858606 0.00050953694 0.0010513786 -0.0012849305 0.0008069784 0.0021258118 -0.002273746 0.0031620597 0.002334108 0.0030350015 0.002416988 0.0028717858 -0.0018890201 -0.0029133703 0.0003845198 0.0029697674 -9.6338365e-05 0.00212766 1.5748774e-05 0.0019074249 0.0015729767 -0.001008818 -0.00050026143 0.002779522 -0.0022169983 -0.001446245 -0.0021438599 -0.0008416381 0.0016675619 0.0016833151 0.00027263814 -0.00072940893 -0.0020942984 0.0033906363 -0.003507992 0.002458578 -0.0016027107 0.0021876004 -0.001326606 0.00056581787
9 -0.00011829969 0.0014802899 0.0032648793 -0.0010283898 -0.0034677724 -0.0028788282 0.0035636735 0.0016500475 -0.002009575 -0.0036367467 0.0021541207 0.0013128875 0.002351176 -0.00028297803 0.002015485 -0.0013705873 0.0010470434 -0.003502368 -0.00035890317 -0.002135147 -0.0031750386 0.0009856978 -0.00096346985 -0.00067001354 0.0024118444 0.0005144984 0.0026394348 0.0019152863 -0.0024522613 -0.00029581317 0.0033119118 -0.00075729255 0.0021773148 -0.0018242155 0.00044523794 -0.0012990087 0.0030836475 -0.0034614021 0.0022474343 -0.0008268338 -0.0011519714 -0.0031706176 0.0001926012 7.658675e-05 0.0002614322 -0.003667134 -0.001976274 0.0015526478 -0.0027336606 0.0017795133 0.0009602363 -0.002732937 0.0035887444 -0.00048344446 0.00067130645 -0.0017369114 -0.00077836047 0.0024479472 -0.0022933288 0.0034517336 0.0016673168 -0.0017081639 -0.0020375676 -0.0034831362 0.0035830932 -0.0001890445 -0.0036220227 -0.002186634 -0.0031651717 0.00061153894 0.0033780306 -0.003159156 -0.0034522933 0.001470913 0.00306184 0.0030476602 -0.00024701987 -0.0014372471 0.0011413012 0.00233277 -0.0013876715 -5.1230472e-05 0.0029797934 0.0016037922 0.0010443811 0.00061718427 -0.000985385 0.0027855965 -0.0015684535 -0.0031406072 0.00064458756 -0.0020809441 0.00017187088 -0.0019338485 0.0017119949 0.002935441 0.0013301263 -0.0014822222 -0.0019381678 3.2470638e-05 0.0030094644 0.0025125851 1.3311508e-05 -0.0017774573 -0.0016805117 0.0030204132 -0.0027440423 -0.00064647116 -0.0025700089 -0.0025081702 -0.0030149524 -0.0025241934 0.0020488093 0.0013184171 -0.00031487085 -0.0017069386 -0.00033734212 -0.0008471692 -0.00049580156 -0.0020075038 0.0019974913 0.0030631553 -0.0015248597 -0.0006042524 0.0013603693 -0.0031188151 -0.00058423734 -0.0030972352
12 -0.0006174495 0.00076592533 -0.0022669479 -0.0003143804 0.0020251402 0.0024188443 0.002596464 -0.00013098681 -0.0030724546 -0.00031050437 0.0034677354 -0.0031044506 0.0036341716 0.0024054614 -0.0016804346 -0.003223322 -0.0010744812 0.00024811423 -0.0035751048 -0.00059699616 0.003281051 0.0032645888 -0.0016882299 -0.0036161128 -0.0025258532 -0.0019439628 -0.0012438652 -0.0025087695 0.0014251425 -0.0026644438 0.002266307 0.003069195 -0.0025100808 -8.7133376e-05 0.00057072623 0.0014172122 0.00061440404 -0.0018742194 -0.0007873816 -0.003126296 -0.0021021091 0.0029532018 -4.4376964e-05 -0.0019395822 -0.0030637125 0.0024265898 -0.0031611915 -0.0028342668 -0.0032194767 -0.00015592507 -0.0016420145 0.0030330052 0.0026554596 -0.0018329397 -0.002161868 0.002042334 0.0028857258 0.0030616436 0.0028714654 -0.0013514893 2.8122156e-05 -0.0012871812 0.0016601292 0.0013883215 -0.0037996639 0.0021856602 0.0014715283 0.0032939524 -0.0024455814 0.000119840995 0.00056954473 0.0021553647 -0.0011418901 0.0018317078 -0.0020690414 0.00067768025 -0.0008745645 -0.00032264882 0.0012747833 0.0010374004 -5.229356e-05 -0.0021882546 -0.00088727067 -1.97791e-06 0.0038876066 -0.0011144031 -0.0032016844 -0.000956391 0.0012883302 -0.0038515215 -0.0013486848 -0.0014860554 -0.0012312452 -0.0009895342 0.003408636 0.0019785992 -0.0015483745 -0.0011307211 -0.0023432986 -0.0021678985 0.0038357286 -0.0033246286 -0.00223287 -7.4694675e-05 0.00363562 0.0033995153 0.0024339654 0.0016622508 -2.4567673e-05 0.0038759604 0.0025487202 0.0024529605 0.00020706744 0.0019742192 -0.0038614299 0.00020636685 0.0034732593 0.0015920051 -0.0022183761 0.0021793167 -0.0022170017 0.0021321005 0.0021133262 0.0035048763 -0.002537979 0.00018692043 -0.0025252511 -0.0033847268
7 0.0035103837 0.0013732036 -0.0019967165 -0.0038648173 -0.002107803 -0.00333218 -0.0037472805 0.00034410827 -0.003513436 0.0037221562 -0.0025717968 -0.0029437938 0.0032084517 0.002816882 0.001118012 -0.00077290897 5.045568e-06 -0.0024012623 -0.00044846497 0.002229673 -0.0009870226 0.00024118925 0.0016630864 0.0005221221 -0.00074264436 0.0018918482 -0.0029467216 0.0034295714 -0.0001013208 -0.00295028 -0.0022653965 -0.0031051387 0.0034443238 0.0013871707 0.000495355 -0.0026482423 -0.0015281135 -0.0020275319 0.0011026178 4.943492e-05 -0.0031540117 -0.0023035656 0.0014146679 0.0002552663 0.0027824077 -0.0030948557 0.0027745916 0.002542882 -0.0030454313 0.0037632484 0.0011608035 -0.0013853725 0.002149506 -0.00070450775 -0.0023522743 -9.8340526e-05 0.0011474747 0.00036188934 0.0026340378 0.0017820912 -0.0028616583 0.0032929159 0.002338442 -0.0035377166 0.0024731678 -0.0012434273 -0.0008181442 -0.0004261796 0.0026230365 -0.0024129488 0.00022843634 0.002207947 0.0038001037 -0.0016970114 0.0027681913 -0.00060940033 -0.0026233788 -0.0032989907 -0.0027527823 0.0017472367 -0.002928404 -0.0016962173 -0.0033845257 -0.0024642812 -0.0020800414 0.00041989077 0.00040599925 0.0036859538 -0.0012257217 -0.0008670031 0.00085315324 0.0010076961 -0.00035771457 0.00040399213 0.00057099503 0.0034043118 -0.0030118753 -0.0012348181 0.0031972826 0.0021338493 0.0007271371 0.0010821332 0.0028387704 0.0034963456 -0.003339566 -0.000456335 0.0011867222 -0.00022554304 0.002298094 0.00017852869 -0.002980309 -0.0012832942 0.0016685098 -0.0037558128 0.0005654175 -0.0030390858 0.00048242026 0.00049242924 -0.0015063361 0.0006508149 0.0009959788 0.0026236046 0.0027885877 0.0029175268 -0.0010657526 -0.0022494383 -0.002580918 -0.0017579669
5 0.0032561817 -0.00017901769 0.0029200274 0.0034607975 0.0008145656 -0.0015467929 0.0015567347 -0.00016796628 0.0017403961 4.1856445e-05 0.000667513 -0.0032028307 0.002504909 0.0017231517 -0.0018124834 0.0022617807 0.0018433655 -0.0031871104 0.0021892148 0.0038882243 -0.0008858564 0.0018999787 -0.0030941984 -0.002531024 0.0031090612 0.0033276181 0.0024995236 -0.0006133842 0.0025405674 0.0004117625 -0.0034490945 0.0027207765 0.0019463009 -0.0032255289 -0.0020747702 -0.001109956 -0.003219346 0.0006664664 0.0032193076 -0.0023814987 0.0031182475 -0.000371854 0.001351318 0.003233654 0.0028234562 -0.0034946632 -0.00057249976 0.00045257702 0.0013197985 -0.0021897538 -0.002565496 -0.0025424256 0.003716709 -0.0023991538 0.0008957319 0.0014773706 -0.0030189045 0.00337407 -0.0020073599 -0.0035788354 0.00019526655 -0.0018447932 -0.0030550319 -0.0022102636 -0.0011123024 0.0022676138 0.0022060948 -0.0030613856 -0.0030497182 -0.00084258924 -0.003008595 -0.0018177975 0.0011328866 -0.0011300197 0.0021135265 -0.0023766484 -0.0022417717 0.0009592117 -0.0036830641 -0.0028475819 -0.003171703 -0.0027279872 0.0031485285 0.0025220702 0.0030620424 0.00058611046 -0.0016979685 -0.0010418564 0.0033902142 0.0028399653 -5.954065e-05 -0.003550442 0.001688217 0.00112047 0.0015770169 0.002867893 -0.0007363323 -0.001372652 0.0017120589 -0.0017753546 0.0034883234 0.0019713077 -0.0023655603 0.0020669862 -0.0034873884 -0.0003356656 0.0035835851 -0.001099492 -0.0022970415 0.0019325785 0.0033627604 -0.0024719716 -0.0027103908 -0.0019220387 0.0011264826 -0.0014156093 0.0036697132 -0.003842771 -0.0011693385 0.001336299 -0.00287457 -0.003558152 0.001394307 0.0015714809 -6.70994e-05 -0.0018793633 -0.00024722453 0.0006667271
4 0.0023307733 0.0020016094 -0.0011770221 0.00062266097 -0.00271654 0.0025323245 -0.0007924676 0.0018472676 0.0023680592 0.001078581 0.0034399426 -0.0033733195 0.00092029694 0.0021099355 -0.0019322694 -0.0019473495 0.003467443 -0.0025253554 -0.00087975664 -0.0029959525 -0.003463471 0.0014011473 0.0018204945 0.0020807567 -0.0003058832 -0.003343636 -0.0031041263 -0.0015987591 0.0013847742 -0.0034274946 -0.00041174467 0.0031282604 -0.0037767717 -0.0002385486 0.001321946 -0.0013992433 0.0006697569 0.00010777997 -0.00022011029 0.0022493727 0.0035681752 -0.0010335341 -0.0016885204 0.003655408 -0.0027234582 -0.0015799426 -0.0010336182 -0.0028283135 -0.0016981703 -0.00085377763 -0.0017969859 0.0027223737 -0.00055307045 0.0005018024 -0.0022992247 -0.0029296558 -0.0022153605 -0.0037731852 -0.0031618902 -0.0020932106 -0.0007455075 0.00090582366 0.0031035983 0.00025230646 -4.245424e-05 -0.0038461012 -0.0006691005 -0.0026408006 -0.0016413565 0.003423846 0.001153237 0.0019396448 -0.0027249113 -0.0021966738 0.0024173881 -0.0028106594 -0.0018606145 0.0027300331 0.001975583 0.00035644736 -0.00339174 -0.001834104 0.0025512136 0.003900379 -0.0032372284 -0.0017131272 -0.0019412783 9.6021206e-05 -0.0032415362 4.163079e-05 0.0010461338 -0.0010159346 0.0027247807 -0.000108980006 -0.0026522647 -0.0018014534 -0.0021988677 6.973323e-06 -0.001091479 0.0023926618 0.0025626053 -0.0018271495 0.0036019138 -0.0037687432 0.0038598126 0.00011762345 -0.00015337484 0.0021899499 0.0035338742 -0.0018446792 -0.0002952409 -0.0013739173 0.0035342232 -0.00035440724 -0.0017815813 -0.0027011568 0.0035828569 -0.00057399843 -0.003490304 0.002191188 0.0036217207 -0.003371105 0.0017140782 0.003198025 -0.0037831448 -0.00072487246 0.0024369387 -0.0026921688
